/*!
 * The following copyright notice may not be removed under any circumstances.
 * 
 * Copyright:
 * Copyright (c) 2008 by Prinya R. nont. All rights reserved.
 * 
 * Trademark:
 * DB Helvethaica X 77 BdCond is a trademark of Prinya R. nont.
 * 
 * Description:
 * Designed by Prinya R. nont - Built by Jedt Sitthidumrong
 * 
 * Manufacturer:
 * Prinya R. nont
 * 
 * Designer:
 * Prinya Rojarayanont
 * 
 * Vendor URL:
 * http://www.dbfonts.biz
 */
Cufon.registerFont({"w":1462,"face":{"font-family":"DB Helvethaica X 77 BdCond","font-weight":700,"font-stretch":"condensed","units-per-em":"4096","panose-1":"2 0 5 6 9 0 0 2 0 4","ascent":"3276","descent":"-820","x-height":"29","bbox":"-57 -2314 2470 668","underline-thickness":"82","underline-position":"-463","unicode-range":"U+0020-U+007E"},"glyphs":{" ":{"w":733},"A":{"d":"635,-2089r422,0r626,2089r-409,0r-168,-557r-537,0r-163,557r-406,0xm840,-1565r-172,668r348,0","w":1683,"k":{"Y":123,"W":61,"V":82,"T":82}},"B":{"d":"872,-324v204,-1,279,-99,283,-303v5,-242,-153,-309,-397,-299r-209,0r0,602r323,0xm549,-1245r172,0v228,4,381,-37,381,-271v0,-288,-276,-243,-553,-245r0,516xm1290,-1118v150,86,240,241,242,471v4,453,-246,647,-717,647r-643,0r0,-2089r696,0v389,-6,606,170,611,545v3,209,-57,348,-189,426","w":1626},"C":{"d":"104,-879v-24,-681,85,-1255,752,-1251v351,2,549,192,634,465v29,92,41,192,38,297r-377,0v-7,-238,-72,-426,-315,-426v-378,0,-356,475,-356,874v0,246,47,478,206,576v83,51,237,47,312,-9v125,-93,159,-287,153,-507r377,0v10,432,-122,750,-446,860v-209,71,-511,19,-652,-70v-234,-148,-313,-442,-326,-809","w":1630},"D":{"d":"1655,-1049v-4,597,-171,1049,-770,1049r-713,0r0,-2089r676,0v535,-5,764,287,798,779v6,86,9,173,9,261xm1278,-1085v5,-363,-55,-667,-406,-676r-319,0r0,1437v179,-7,391,27,509,-44v191,-116,212,-395,216,-717","w":1786},"E":{"d":"172,0r0,-2089r1225,0r0,328r-848,0r0,516r799,0r0,327r-799,0r0,594r852,0r0,324r-1229,0","w":1475},"F":{"d":"172,0r0,-2089r1163,0r0,328r-786,0r0,512r733,0r0,327r-733,4r0,918r-377,0","w":1348,"k":{"A":82}},"G":{"d":"102,-1057v4,-608,170,-1065,783,-1065v354,0,571,166,666,432v32,91,47,193,46,306r-376,0v-3,-237,-94,-399,-324,-402v-427,-6,-427,457,-417,886v7,297,56,576,351,593v312,18,402,-200,410,-500r-475,0r0,-328r852,0r0,1135r-324,0r0,-131v-99,105,-238,163,-430,164v-621,4,-766,-472,-762,-1090","w":1798},"H":{"d":"172,0r0,-2089r377,0r0,815r704,0r0,-815r377,0r0,2089r-377,0r0,-942r-704,0r0,942r-377,0","w":1802},"I":{"d":"217,0r0,-2089r381,0r0,2089r-381,0","w":815},"J":{"d":"561,41v-393,0,-556,-214,-553,-606r0,-148r377,0v2,202,-31,422,180,422v160,0,193,-117,193,-274r0,-1524r377,0r0,1544v4,400,-181,586,-574,586","w":1307},"K":{"d":"172,0r0,-2089r377,0r0,852r696,-852r467,0r-741,897r737,1192r-455,0r-544,-893r-152,172r0,721r-385,0","w":1679,"k":{"A":-82}},"L":{"d":"172,0r0,-2089r377,0r0,1761r872,0r0,328r-1249,0","w":1454,"k":{"Y":184,"W":61,"V":102,"T":102}},"M":{"d":"172,-2089r623,0r356,1479r8,0r357,-1479r622,0r0,2089r-377,0r0,-1745r-442,1745r-328,0r-442,-1757r0,1757r-377,0r0,-2089","w":2314},"N":{"d":"680,-2089r577,1548r0,-1548r377,0r0,2089r-508,0r-573,-1524r0,1524r-377,0r0,-2089r504,0","w":1810},"O":{"d":"905,-2130v606,0,766,442,766,1045v0,636,-131,1134,-774,1134v-726,0,-814,-657,-765,-1378v32,-480,246,-801,773,-801xm1222,-486v85,-208,87,-590,56,-876v-18,-168,-79,-302,-186,-380v-97,-71,-294,-73,-392,0v-162,121,-203,374,-200,661v4,325,8,618,193,747v96,68,312,67,408,0v51,-35,93,-85,121,-152","w":1798},"P":{"d":"1200,-1475v0,-316,-331,-289,-647,-286r0,606v332,2,647,24,647,-320xm885,-2089v420,5,683,184,688,610v5,422,-213,601,-595,635v-129,11,-280,14,-425,13r0,831r-377,0r0,-2089r709,0","w":1622,"k":{"J":82,"A":82}},"Q":{"d":"1348,-74v-113,79,-256,123,-451,123v-726,0,-814,-657,-765,-1378v32,-480,246,-801,773,-801v681,0,801,574,759,1260v-14,219,-46,416,-124,571r238,184r-189,230xm1237,-532v69,-211,70,-565,41,-830v-19,-168,-79,-302,-186,-380v-97,-71,-294,-73,-392,0v-162,121,-203,374,-200,661v4,325,8,618,193,747v81,58,247,66,356,27r-164,-127r188,-230","w":1790},"R":{"d":"877,-1188v208,-2,353,-84,348,-299v-5,-214,-167,-274,-389,-274r-279,0r0,573r320,0xm1212,-565v-4,-189,-97,-296,-294,-295r-361,0r0,860r-377,0r0,-2089r639,0v479,-5,812,130,787,627v-10,194,-93,336,-230,413v142,55,186,189,197,377r13,210v11,196,47,326,126,462r-414,0v-56,-155,-82,-361,-86,-565","w":1774},"S":{"d":"827,-303v195,0,334,-81,340,-275v6,-252,-211,-277,-393,-340r-254,-88v-234,-83,-411,-207,-405,-522v6,-302,175,-476,406,-559v166,-60,400,-55,565,-1v259,85,409,293,389,646r-377,0v22,-237,-91,-354,-320,-352v-187,1,-286,96,-286,278v0,121,81,180,172,213v274,98,592,174,762,359v76,82,118,178,118,321v0,332,-161,527,-413,615v-177,62,-465,55,-640,0v-289,-91,-418,-334,-401,-725r385,0v-7,203,25,351,171,403v47,17,107,27,181,27","w":1630},"T":{"d":"29,-2089r1405,0r0,332r-508,0r0,1757r-381,0r0,-1757r-516,0r0,-332","k":{"J":82,"A":82}},"U":{"d":"897,-295v222,0,352,-83,352,-303r0,-1491r373,0r0,1532v-9,420,-300,590,-725,590v-327,0,-566,-108,-672,-331v-35,-74,-53,-160,-53,-259r0,-1532r377,0r0,1491v-1,216,127,303,348,303","w":1794},"V":{"d":"401,-2089r414,1536r418,-1536r409,0r-626,2089r-393,0r-623,-2089r401,0","w":1647,"k":{"o":61,"e":61,"c":61,"a":61,"J":61,"A":82}},"W":{"d":"1229,-1327r-320,1327r-409,0r-500,-2089r414,0r299,1364r319,-1364r410,0r295,1380r323,-1380r410,0r-541,2089r-409,0","w":2470,"k":{"o":33,"e":33,"J":61,"A":61}},"X":{"d":"647,-1073r-635,-1016r447,0r401,688r393,-688r447,0r-627,1008r643,1081r-459,0r-405,-741r-410,741r-446,0","w":1720},"Y":{"d":"823,-1184r410,-905r414,0r-635,1282r0,807r-377,0r0,-807r-635,-1282r414,0","w":1647,"k":{"u":82,"o":102,"e":102,"a":82,"J":123,"A":123}},"Z":{"d":"78,0r0,-266r971,-1491r-943,0r0,-332r1385,0r0,270r-971,1491r987,0r0,328r-1429,0","w":1589},"!":{"d":"291,-1417r0,-672r397,0r0,672r-74,876r-254,0xm291,0r0,-385r397,0r0,385r-397,0","w":979},"\"":{"d":"106,-2089r230,0r0,672r-230,0r0,-672xm483,-2089r230,0r0,672r-230,0r0,-672","w":819},"#":{"d":"365,-672r-295,0r77,-254r299,0r70,-229r-299,0r82,-254r307,0r217,-672r258,0r-217,672r221,0r213,-672r267,0r-217,672r307,0r-78,254r-315,0r-70,229r307,0r-74,254r-315,0r-213,672r-266,0r213,-672r-221,0r-217,672r-259,0xm930,-926r69,-229r-217,0r-65,229r213,0","w":1720},"$":{"d":"1417,-610v0,395,-212,609,-577,647r0,246r-205,0r0,-247v-417,-30,-596,-293,-574,-757r361,0v-8,222,28,388,213,420r0,-623r-147,-54v-232,-86,-407,-209,-402,-525v4,-275,137,-444,328,-535v67,-31,141,-51,221,-59r0,-217r205,0r0,221v344,46,535,267,512,672r-348,0v12,-171,-39,-288,-164,-332r0,555v192,74,343,148,457,267v80,83,120,176,120,321xm840,-300v131,-30,223,-107,225,-265v4,-178,-94,-242,-225,-286r0,551xm635,-1768v-133,24,-201,121,-201,273v0,129,95,181,201,226r0,-499"},"%":{"d":"836,20r-275,0r922,-2043r262,0xm1765,-1065v305,1,410,217,410,516v0,334,-121,546,-446,537v-291,-8,-398,-229,-398,-545v0,-307,120,-509,434,-508xm1626,-504v0,114,17,234,131,234v110,0,123,-123,123,-234v0,-137,3,-303,-127,-303v-130,0,-127,166,-127,303xm143,-1479v3,-305,118,-512,430,-512v307,0,408,221,410,525v3,331,-99,548,-438,528v-304,-18,-406,-213,-402,-541xm442,-1557v-11,152,-29,365,123,365v114,0,123,-127,123,-242v0,-137,0,-299,-131,-299v-90,0,-109,92,-115,176","w":2318},"&":{"d":"770,-950v-116,86,-229,159,-229,356v0,208,146,315,356,315v121,0,217,-66,283,-131xm594,-1192v-88,-113,-172,-220,-172,-418v0,-214,112,-356,268,-425v184,-82,450,-18,559,82v81,75,144,179,144,327v0,261,-185,382,-344,500r311,393v24,-90,41,-193,49,-299r332,0v-22,226,-59,438,-148,598r357,438r-434,0r-136,-160v-124,117,-288,193,-512,193v-326,0,-543,-139,-642,-371v-33,-78,-50,-167,-50,-264v1,-337,201,-468,418,-594xm897,-1786v-111,0,-161,112,-129,224v21,76,65,135,104,194v81,-63,168,-121,168,-258v0,-92,-50,-160,-143,-160","w":1954},"'":{"d":"250,-2089r229,0r0,672r-229,0r0,-672","w":733},"(":{"d":"152,-725v-7,-644,234,-1036,487,-1434r303,0r-106,212v-167,334,-302,689,-299,1193v4,617,194,1020,434,1422r-332,0v-242,-386,-481,-789,-487,-1393","w":979},")":{"d":"8,668v239,-404,429,-804,434,-1422v5,-611,-200,-1003,-405,-1405r303,0v252,399,493,790,487,1434v-6,604,-245,1007,-487,1393r-332,0","w":979},"*":{"d":"610,-1815r0,-327r258,0r0,323r312,-118r73,237r-307,103r209,249r-209,152r-217,-262r-197,246r-225,-136r209,-241r-303,-123r90,-225"},"+":{"d":"668,-1352r295,0r0,504r503,0r0,283r-503,0r0,516r-295,0r0,-516r-504,0r0,-283r504,0r0,-504","w":1630},",":{"d":"193,0r0,-365r352,0r0,349v-1,254,-133,410,-352,454r0,-225v109,-7,134,-103,139,-213r-139,0","w":733},"-":{"d":"164,-848r844,0r0,283r-844,0r0,-283","w":1171},".":{"d":"193,0r0,-365r352,0r0,365r-352,0","w":733},"\/":{"d":"-57,119r741,-2253r303,0r-749,2253r-295,0","w":930},"2":{"d":"676,-1692v-201,0,-223,196,-217,402r-377,0v-1,-147,-3,-272,42,-383v87,-213,267,-363,560,-363v388,0,598,214,598,598v0,335,-160,505,-348,660r-373,307v-52,43,-82,68,-102,135r844,0r0,336r-1237,0v-7,-338,77,-559,262,-717r401,-340v98,-95,176,-199,176,-389v0,-156,-71,-246,-229,-246","w":1389},"3":{"d":"676,-319v166,-1,251,-87,254,-250v2,-191,-64,-294,-224,-322v-54,-10,-120,-15,-198,-14r0,-295v208,-5,364,-47,364,-266v0,-143,-63,-226,-208,-226v-182,0,-219,135,-218,316r-356,0v-17,-415,172,-660,578,-660v275,0,457,121,540,318v28,67,41,141,41,223v-1,189,-59,326,-164,414v136,85,218,227,218,442v0,428,-210,666,-644,668v-442,2,-620,-257,-610,-701r373,0v-18,213,49,355,254,353","w":1389},"4":{"d":"815,-2003r315,0r0,1204r185,0r0,340r-185,0r0,459r-372,0r0,-459r-738,0r0,-291xm758,-795r0,-376r8,-172r-57,118r-275,430r324,0","w":1343},"5":{"d":"483,-1327v58,-34,138,-66,226,-66v317,2,497,173,561,422v110,429,-43,863,-389,969v-139,43,-345,37,-475,-10v-227,-82,-352,-278,-336,-594r372,0v-6,181,48,300,226,295v196,-6,262,-177,262,-377v0,-206,-62,-377,-271,-377v-142,0,-211,73,-262,172r-307,0r131,-1110r1008,0r0,340r-688,0r-33,233","w":1389},"6":{"d":"700,-1012v-181,0,-239,140,-245,316v-7,223,52,385,262,385v188,0,237,-178,237,-369v0,-187,-66,-332,-254,-332xm721,29v-534,8,-657,-410,-651,-942v0,-81,1,-165,3,-252v14,-487,145,-868,652,-863v358,3,520,221,557,553r-377,0v-11,-135,-74,-221,-213,-221v-153,0,-195,147,-228,278v-18,69,-24,151,-26,230v73,-77,169,-139,299,-139v307,0,483,161,559,394v54,167,43,382,-12,539v-85,240,-257,418,-563,423","w":1389},"7":{"d":"1327,-1729v-345,452,-599,1015,-672,1729r-405,0v92,-666,313,-1224,635,-1667r-819,0r0,-336r1261,0r0,274","w":1389},"8":{"d":"696,-918v-172,0,-241,131,-241,300v0,188,68,319,258,319v155,0,224,-141,221,-319v-3,-170,-66,-300,-238,-300xm705,-1704v-138,0,-189,92,-189,229v0,145,52,263,193,263v133,0,172,-123,172,-258v0,-131,-46,-234,-176,-234xm709,37v-420,0,-628,-229,-631,-647v-1,-234,97,-375,241,-463v-152,-86,-214,-315,-167,-547v53,-263,247,-412,569,-412v348,0,536,198,536,549v0,180,-72,310,-172,398v143,83,230,227,230,446v0,411,-190,676,-606,676","w":1389},"9":{"d":"700,-987v181,0,241,-139,246,-316v6,-224,-53,-385,-262,-385v-187,0,-238,182,-238,369v0,187,66,332,254,332xm680,-2028v534,-8,657,411,651,943v0,81,-1,165,-3,251v-14,486,-145,868,-652,863v-359,-3,-520,-221,-557,-553r377,0v10,137,73,221,213,221v152,0,194,-148,227,-279v17,-69,25,-150,27,-229v-73,77,-169,139,-299,139v-307,0,-482,-161,-558,-394v-54,-167,-46,-381,10,-538v85,-240,257,-419,564,-424","w":1389},":":{"d":"193,0r0,-365r352,0r0,365r-352,0xm193,-1184r0,-364r352,0r0,364r-352,0","w":733},";":{"d":"193,-1184r0,-364r352,0r0,364r-352,0xm201,0r0,-365r352,0r0,349v-1,254,-133,410,-352,454r0,-225v109,-7,134,-103,139,-213r-139,0","w":733},"<":{"d":"1479,-279r0,312r-1315,-692r0,-234r1315,-692r0,303r-942,504","w":1647},"=":{"d":"1384,-831r-1220,0r0,-283r1220,0r0,283xm1384,-303r-1220,0r0,-283r1220,0r0,283","w":1544},">":{"d":"1110,-778r-942,-504r0,-303r1315,692r0,234r-1315,692r0,-312","w":1647},"?":{"d":"791,-1794v-226,0,-288,162,-283,389r-377,0v-14,-436,189,-700,623,-700v300,0,506,121,604,327v54,113,61,287,22,414v-72,236,-256,368,-398,536v-63,74,-83,176,-77,320r-385,0v-1,-186,11,-325,88,-428v120,-160,306,-272,379,-476v61,-172,-4,-382,-196,-382xm520,0r0,-365r389,0r0,365r-389,0"},"@":{"d":"1314,-1356v-43,-31,-132,-31,-185,-6v-144,70,-213,226,-233,417v-14,129,12,249,140,249v201,0,249,-211,304,-378v28,-85,45,-231,-26,-282xm1054,-1577v154,-54,360,-34,437,82r20,-70r254,0r-255,793v-17,37,-14,79,38,76v189,-11,275,-140,336,-280v61,-143,56,-358,-10,-496v-107,-221,-324,-359,-641,-359v-334,0,-534,184,-665,401v-90,150,-138,388,-78,600v80,276,263,469,535,552v66,20,135,28,208,28v301,0,524,-118,655,-303r320,0v-148,262,-376,452,-692,537v-292,78,-623,14,-812,-104v-287,-180,-499,-463,-499,-916v0,-455,219,-744,507,-926v188,-119,491,-183,771,-114v338,83,573,290,669,616v50,170,49,382,-19,536v-108,247,-326,420,-626,465v-112,17,-202,-13,-237,-90v-81,91,-288,121,-422,57v-133,-64,-213,-201,-213,-393v0,-280,109,-485,271,-613v44,-34,93,-60,148,-79","w":2413},"[":{"d":"225,651r0,-2805r643,0r0,299r-278,0r0,2199r278,0r0,307r-643,0","w":979},"\\":{"d":"692,119r-749,-2253r303,0r741,2253r-295,0","w":930},"]":{"d":"111,651r0,-307r278,0r0,-2199r-278,0r0,-299r643,0r0,2805r-643,0","w":979},"^":{"d":"840,-2142r503,1265r-274,0r-336,-847r-336,847r-270,0r496,-1265r217,0"},"_":{"d":"0,406r0,-238r1462,0r0,238r-1462,0"},"`":{"d":"508,-2175r319,483r-299,0r-467,-483r447,0","w":979},"a":{"d":"573,-270v120,0,177,-94,177,-230r0,-241r-226,98v-63,31,-90,107,-90,197v0,103,36,176,139,176xm1118,-336v-3,51,11,86,68,79v22,-3,48,-5,67,-9r0,246v-89,26,-226,32,-303,-9v-52,-28,-87,-69,-110,-127v-73,102,-179,178,-324,185v-358,16,-503,-240,-444,-592v24,-146,117,-246,247,-297r422,-164v32,-16,29,-49,29,-94v0,-118,-47,-163,-164,-164v-136,-1,-151,114,-147,254r-340,-16v-11,-363,164,-533,524,-529v305,3,475,145,475,447r0,790","w":1298},"b":{"d":"666,-1260v-142,106,-131,376,-123,613v6,178,38,364,219,364v75,0,132,-44,163,-133v71,-206,92,-729,-85,-846v-48,-32,-130,-31,-174,2xm844,25v-148,0,-245,-82,-307,-181r0,168r-353,0r0,-2101r369,0r0,668v59,-88,150,-164,278,-164v415,0,521,343,521,762v0,445,-65,848,-508,848","w":1458},"c":{"d":"94,-754v0,-465,118,-822,586,-819v274,2,425,161,494,373v24,73,34,151,34,233r-348,0v-5,-121,-36,-230,-106,-287v-45,-36,-128,-36,-174,-3v-123,93,-113,330,-113,544v0,164,15,326,100,405v27,25,62,38,105,38v176,0,183,-196,200,-365r353,0v-15,274,-101,497,-287,607v-114,67,-327,68,-464,27v-293,-87,-380,-375,-380,-753","w":1298},"d":{"d":"784,-304v145,-80,134,-326,134,-548v0,-169,-23,-336,-125,-408v-45,-33,-129,-36,-175,-2v-112,81,-135,266,-135,455v0,172,18,302,50,391v42,119,145,170,251,112xm627,-1585v127,0,221,76,278,164r0,-668r369,0r0,2101r-352,0r0,-168v-63,99,-159,181,-308,181v-443,0,-508,-403,-508,-848v0,-355,82,-640,344,-735v51,-18,110,-27,177,-27","w":1458},"e":{"d":"827,-958v-3,-157,-18,-328,-172,-328v-150,0,-174,176,-184,328r356,0xm659,-270v146,0,173,-146,168,-299r357,0v10,277,-101,465,-294,553v-128,58,-326,61,-461,6v-253,-103,-335,-380,-335,-756v0,-446,110,-803,557,-803v467,0,547,400,545,869r-729,0v0,28,-1,58,1,90v9,164,25,340,191,340","w":1298},"f":{"d":"631,-2093v60,-1,113,1,168,8r0,295v-121,-4,-234,-27,-234,107r0,135r221,0r0,299r-221,0r0,1249r-352,0r0,-1249r-188,0r0,-299r180,0v0,-161,-2,-322,74,-414v71,-86,187,-131,352,-131","w":815},"g":{"d":"802,-1240v-47,-43,-142,-53,-196,-12v-152,114,-141,442,-121,690v9,111,39,204,97,260v46,45,141,45,195,10v130,-86,141,-301,141,-515v0,-180,-23,-348,-116,-433xm639,-1569v131,0,220,68,279,152r0,-131r360,0r0,1429v-4,416,-159,701,-578,701v-322,0,-512,-173,-553,-467r361,0v16,106,74,180,188,180v194,0,214,-181,217,-373v-64,64,-133,112,-258,111v-494,-2,-584,-471,-541,-987v28,-336,157,-615,525,-615"},"h":{"d":"762,-1282v-138,0,-218,84,-217,225r4,1057r-365,0r0,-2089r361,0r0,717v75,-105,173,-201,344,-201v270,0,405,163,405,443r0,1130r-364,0r0,-1069v-3,-121,-49,-213,-168,-213","w":1470},"i":{"d":"160,0r0,-1548r356,0r0,1548r-356,0xm160,-1712r0,-377r356,0r0,377r-356,0","w":676},"j":{"d":"-8,258v47,7,126,13,151,-16v28,-32,25,-77,25,-144r0,-1646r352,0r0,1626v2,264,-59,427,-271,472v-68,15,-154,23,-257,23r0,-315xm168,-1712r0,-377r352,0r0,377r-352,0","w":680},"k":{"d":"184,0r0,-2089r361,0r0,1065r442,-524r406,0r-521,618r504,930r-377,0r-368,-651r-86,94r0,557r-361,0","w":1364},"l":{"d":"180,0r0,-2089r357,0r0,2089r-357,0","w":717},"m":{"d":"811,-1278v-182,0,-274,122,-274,307r0,971r-357,0r0,-1548r348,0r0,147v76,-92,175,-168,332,-168v190,0,308,89,393,205v102,-110,219,-205,426,-205v310,0,468,160,467,475r0,1094r-356,0r0,-1094v1,-125,-58,-185,-184,-184v-170,1,-263,101,-263,279r0,999r-352,0r0,-1094v0,-120,-58,-184,-180,-184","w":2327},"n":{"d":"762,-1282v-138,0,-218,84,-217,225r4,1057r-365,0r0,-1548r361,0r0,176v75,-105,173,-201,344,-201v270,0,405,163,405,443r0,1130r-364,0r0,-1069v-3,-121,-49,-213,-168,-213","w":1475},"o":{"d":"119,-770v0,-469,150,-803,614,-803v462,0,615,335,615,803v0,476,-159,799,-615,799v-454,0,-614,-327,-614,-799xm626,-304v60,42,155,44,214,0v147,-110,154,-443,122,-686v-20,-156,-70,-292,-233,-292v-82,0,-144,43,-180,130v-85,204,-92,729,77,848"},"p":{"d":"762,-1266v-263,0,-260,299,-253,570v6,213,35,434,249,434v225,0,250,-259,250,-492v0,-172,-19,-300,-57,-385v-38,-85,-101,-127,-189,-127xm836,37v-132,0,-218,-71,-283,-148r0,652r-369,0r0,-2089r353,0r0,139v61,-92,149,-164,290,-164v297,0,426,198,497,432v88,289,63,740,-70,947v-85,132,-207,231,-418,231","w":1458},"q":{"d":"949,-696v5,-272,9,-570,-253,-570v-88,0,-153,41,-188,127v-84,206,-98,745,96,852v56,31,148,32,201,-1v112,-70,141,-234,144,-408xm627,-1573v135,0,228,67,295,160r0,-135r352,0r0,2089r-369,0r0,-623v-60,64,-141,119,-258,119v-320,0,-476,-210,-533,-477v-95,-448,-2,-964,334,-1100v53,-22,112,-33,179,-33","w":1458},"r":{"d":"512,-1393v88,-124,238,-191,459,-159r0,327v-273,-41,-455,72,-455,328r0,897r-348,0r0,-1548r344,0r0,155","w":971},"s":{"d":"627,-270v123,1,200,-57,200,-176v0,-136,-125,-162,-229,-201r-114,-43v-191,-81,-382,-173,-382,-440v0,-227,122,-354,296,-413v125,-43,310,-38,434,1v206,65,314,231,311,506r-365,0v12,-149,-23,-241,-155,-246v-118,-5,-194,105,-141,210v49,98,191,116,299,159v201,80,411,167,411,438v0,341,-219,499,-565,504v-388,5,-567,-190,-566,-578r361,0v-7,162,50,279,205,279","w":1298},"t":{"d":"553,-340v-2,30,11,42,41,41r213,0r0,299v-227,-13,-516,59,-583,-140v-13,-40,-23,-92,-23,-159r0,-954r-193,0r0,-295r193,0r0,-422r352,0r0,422r242,0r0,295r-242,0r0,913","w":803},"u":{"d":"709,-270v125,-5,192,-96,192,-230r0,-1048r361,0r0,1548r-361,0r0,-143v-76,93,-184,172,-336,172v-278,0,-385,-194,-385,-475r0,-1102r361,0r0,1085v1,115,48,198,168,193","w":1446},"v":{"d":"0,-1548r369,0r237,995r17,98r16,-98r238,-995r368,0r-454,1548r-340,0","w":1245},"w":{"d":"1352,-569r225,-979r369,0r-418,1548r-328,0r-225,-926r-209,926r-328,0r-426,-1548r369,0r229,979r217,-979r299,0","w":1954},"x":{"d":"0,-1548r389,0r295,499r299,-499r385,0r-491,766r503,782r-389,0r-307,-500r-303,500r-393,0r504,-786","w":1372},"y":{"d":"41,205v113,39,292,99,365,-9v43,-62,65,-136,98,-225r-504,-1519r369,0r290,991r304,-991r368,0r-475,1442r-120,328r-48,110v-84,136,-206,222,-422,221v-75,0,-161,-14,-225,-33r0,-315","w":1331},"z":{"d":"61,0r0,-233r697,-1029r-660,0r0,-286r1078,0r0,241r-697,1016r701,0r0,291r-1119,0","w":1241},"{":{"d":"414,-913v110,73,164,201,164,381r0,536v1,168,104,221,237,266r-20,62v-291,5,-499,-36,-557,-252v-51,-188,-25,-475,-25,-707v0,-168,-91,-235,-233,-262r0,-65v139,-14,233,-77,233,-230r0,-545v-5,-341,234,-434,582,-417r12,69v-135,34,-230,88,-229,250r0,570v-2,162,-58,277,-164,344","w":803},"|":{"d":"233,-2089r267,0r0,2089r-267,0r0,-2089","w":733},"}":{"d":"-12,270v132,-46,237,-97,237,-266r0,-536v0,-180,54,-308,164,-381v-108,-67,-164,-181,-164,-344r0,-570v1,-162,-94,-216,-229,-250r12,-69v344,-16,582,72,582,417r0,545v2,153,94,215,233,230r0,65v-143,27,-233,94,-233,262v0,233,24,518,-26,707v-57,215,-266,257,-556,252","w":803},"~":{"d":"999,-475v-225,0,-308,-193,-528,-193v-103,0,-147,107,-185,188r-48,103r-164,-209v68,-132,135,-284,264,-350v224,-114,431,68,602,144v91,41,151,-24,191,-78v39,-52,75,-123,102,-187r160,226v-62,130,-140,260,-266,325v-39,21,-82,31,-128,31"},"0":{"d":"588,-338v54,41,160,43,214,0v180,-143,142,-518,142,-836v0,-203,-23,-403,-144,-491v-55,-41,-160,-42,-214,1v-175,138,-143,497,-143,804v0,214,20,428,145,522xm70,-991v0,-559,73,-1041,626,-1041v552,0,623,482,623,1041v0,550,-76,1024,-623,1024v-548,0,-626,-475,-626,-1024","w":1393},"1":{"d":"135,-1659v285,0,461,-91,492,-344r323,0r0,2003r-377,0r0,-1421v-124,61,-262,78,-438,69r0,-307","w":1389},"\u00a0":{"w":733}}});
